0.22624326996795985,0.31732535959096875,0.26802268939466345,0.058161191436537196,-0.2939668459789673,0.058884794618415115,0.40602706601192573,-0.05782212668928416,0.4775497531413798,-0.22629554231012966,-0.20809371523004666,-0.032685299652016386,0.13265907281667877,-0.030488121570315274,0.4821512531406019,-0.469633009270594,0.3623701538249712,0.4953470812157481,0.17718114921691885,-0.18540820697574328,0.31690790868220287,0.3480517830923441,0.49190217535565706,-0.4673748016205499,0.19994198377241468,0.0262841426424143,0.434018658909024,0.18762028249335483,0.04681543425974222,-0.41889005010895897,-0.3128754258215779,-0.04667281478022822,-0.20282813427170188,0.48854377911823976,0.1426974728902325,0.26296358823914245,-0.46960570708364513,-0.11899549310048835,-0.1568581553440812,0.4574551656644117,0.005129212748785084,0.21597251236251203,-0.3810422708657767,-0.22654851652986768,0.4070979500688138,0.2947655938541357,-0.1628396607296726,-0.04279121223035792,-0.35317495970668966,-0.27868526046103115,-0.08992672040589467,0.21872683275431715,0.11983028362497239,-0.012031947501018603,-0.30508656325055594,0.37819148687561577,0.3254231842353117,0.23539749101521334,0.3582192076641224,0.17974901137861843,0.12486613570939109,-0.28159321648142915,0.39536243905097357,0.3964398032503388
-0.41342011648855176,0.3385790995501816,-0.3298571653803145,0.144115293698439,0.3268144055394523,-0.28081233509854053,0.4999726978130511,-0.018634353074540533,0.15220523655982932,0.21972598355250716,0.3094625802754716,-0.39906460368030916,0.22909405395812077,0.2184506918855248,-0.3744727516893636,0.4051763899182791,-0.3108761966279131,-0.023190128860618053,0.0407952422000446,-0.17449930527922664,0.1710366702969357,-0.03160225857589499,0.3334969015947994,0.3092038132293168,0.2936303423687957,0.2645059860146167,0.43754040400383076,-0.20500319809885842,0.02278529923538919,0.16339283327730036,-0.16741097004497935,-0.2132775707697857,0.32061007331153846,-0.2774820741161155,-0.3131284000413159,-0.43148114948136784,0.12462275923445021,0.1930450455718884,0.13039438223018984,0.42763737539185087,-0.27865795827408224,0.42870763266864587,-0.43347840380551217,0.4001043000724652,0.17850547222350976,-0.4060219595702467,-0.350902567082505,-0.3930275076502131,0.1098702427045769,0.4530428177458433,-0.009374791993468412,-0.3519437354299909,0.1776115413185263,0.0698617443302002,-0.2745968670465969,0.11818214208734323,-0.4949178020446178,-0.1390609786096313,0.3504849513296433,-0.4376915804751644,-0.2183527391023714,0.20497589591190957,0.45858034769007017,0.48881240328252895
-0.11286304640251354,0.022740151045257284,-0.21967467699184767,0.006576128074236243,0.03157909192684061,-0.44299160220799577,-0.21944636931617112,-0.0039212421998015,0.34641548890919216,0.11315786680819362,-0.3958413470051444,0.24232903762828983,-0.09812385477038282,0.43339260152233416,-0.36930165899419304,0.19965230193904238,0.11540855309712172,0.33056791165404387,0.18512655919656462,0.06974248148954587,-0.32723237472923117,-0.31546723461498843,0.10911088791168799,-0.2492516710186618,0.49711479293048144,0.06868945787134084,-0.43656334743675,-0.2363162621559185,0.342560094242245,0.06808596270535416,0.14599011449422228,0.016366145814008193,0.4701272849785757,-0.4222908070880411,0.01296734647497877,-0.3442346788217475,0.31365271742160095,0.14252130484325876,0.07539340042294629,0.05286184491257273,0.17248918706201444,0.49454645020633303,-0.19835922433918307,-0.43554632548966743,-0.034296908664655346,-0.016925904674886694,-0.283694003142274,-0.42831040356695205,-0.26975931961543825,-0.3491673506093991,-0.053100133572286046,-0.048920650756415274,-0.48015066328465505,-0.1111621337994757,0.3160447780117601,-0.2973958117875251,0.4136292631335693,-0.47042300597318587,0.009461335143754912,0.46288963405549977,0.49357174522875424,-0.48313010716025256,0.15351866355795352,-0.22167047379616206
0.46716775231397145,0.08779250718084741,0.27220175264971413,-0.1758330476823417,-0.07957474495264455,0.4749330198275544,0.38599958451744154,0.47288724825386297,-0.24482548876890237,-0.36773528571600805,0.39725329442753143,-0.3217788249355642,0.3828919897241946,0.04465721340135542,0.28504523764599354,0.01404069760536808,-0.1476165389863851,0.4917470561302021,-0.46655694254048025,0.19172744485164406,-0.37881390372235973,-0.30508923474936245,-0.003483190901336808,0.0812894187780514,-0.23833558509980124,-0.18963684173749612,-0.2578639419553168,0.2840757233947868,-0.36694003030049616,0.11250376636744652,0.05929009968381849,0.15561929422226706,-0.15897221335162048,-0.476688750543021,-0.40271407780363877,0.3779105841544972,0.21087234267539923,0.39213904454006765,0.15126434138569256,-0.24469233944299273,-0.23516693512684056,-0.025987381826149014,-0.3040951619875129,0.38758462243135305,-0.008415428227007138,0.13782360294732432,-0.18028780151171975,-0.13102795026778613,-0.25546824361917947,0.49542063753838683,0.11050617304188481,-0.4981753109014478,0.4834268353802277,0.46179121870630946,-0.3428565700738023,0.2722569870633339,-0.4087243019178157,-0.30908766612833727,-0.43749746258254046,-0.38993790321514843,0.23279696178287124,-0.39807613887734533,0.3398272785543591,0.14267074486365106
0.07297461460017352,-0.25836599979473557,0.3371933884160563,0.35958074026721565,-0.05262870879500581,0.40713465349149647,0.30316835492996885,-0.03975558352645281,-0.15951728525549047,0.27813539690251243,-0.07310562002151533,0.14717347810378922,0.4990059272381505,0.1089321866673102,-0.4102951529949415,0.12384081195287444,0.49065095977422357,0.3731640083124693,0.03954396701396623,-0.362360667838883,-0.49800240667443835,0.05746541058526622,0.17219245884203938,-0.12076343205792989,0.36616781953078126,-0.17497106486697267,0.2866348860723129,0.019960008803736384,0.32963650712260817,0.04120224460084099,0.02251069877413603,-0.33709079624949523,0.13418533961949186,0.05323409314883598,-0.18538999216882046,-0.2500494284322715,0.30063021453126815,-0.039868541778935396,0.4216007585272197,-0.16260289711067588,-0.3077477173915821,-0.3497382434316623,0.16134197435404263,-0.29470856152228475,0.034896838727824786,0.009969951822408452,0.2732510598251834,-0.017656488585125862,-0.3987925131333957,-0.061338274535414905,-0.38058886298937206,0.3596329534704019,0.06237989410868838,0.2021879463932421,0.14067315153808946,-0.48449079598509276,0.06944154136322511,-0.042043179526013885,0.4934129207364344,-0.37765764392803314,-0.3795002325808165,-0.21679165387376753,0.13060790935093902,0.29928047014366854
-0.24437530187162354,-0.2360148237720201,-0.48701186151570264,-0.05422816591068552,-0.2056778211638694,0.33975427543733006,0.3232105974216064,0.030519501553158968,0.45156324978524975,-0.29785313587535783,0.44538704955269914,0.351735836757224,0.3961234362312236,-0.033098979635675874,0.3443397292142454,-0.1438021322916272,0.051777875307843946,-0.19570862534256123,-0.08124747806286786,-0.10902521834197698,-0.07820889240978701,0.1628777453037341,0.10052930964181628,0.43199739322624975,0.4125609416107465,-0.2008991961837277,0.18050903020450337,-0.15732660594271802,-0.03328146251536973,0.2992584024552528,-0.28310266452985944,0.4090439364821855,0.0196538472173986,0.3620615042103741,0.44966674034933873,-0.22908833750015511,-0.003018186661888911,-0.1725207742641311,-0.31197866742125646,-0.23854678857072575,0.11545112804297875,0.08889163545746903,0.40806970368515216,-0.13976697001595373,0.25680089684054297,0.2889373147808655,-0.3806142322163164,-0.397459479001099,0.11361709125974084,0.13721505302806158,0.07056448076412292,0.3162083927617447,0.3644558241891004,-0.260366872307084,-0.12251063744654445,0.0927469528246424,0.16345586658616362,-0.4190092547419524,0.03321089247856801,0.4952213750198583,-0.3407547547671733,-0.019462796635675628,-0.4361990359314713,-0.34769515267000306
0.48524952865450155,-0.46365688692948637,-0.16791801046017463,-0.4659380679791505,0.017234280014985393,0.0734280667144005,0.3592160543702617,-0.2757013504280249,-0.3837299579213047,-0.34270068949214216,0.2755236536150443,0.33289947213274407,0.25480804161858184,-0.2597037203422299,-0.3248035036142932,-0.37637637317011896,-0.3202849639674113,0.07796850920560239,0.2290563027975412,0.32950348445656874,-0.2713060783088701,-0.09931105729160417,-0.4554118877069149,-0.2199792804755174,-0.015427858343081469,-0.14308021247530367,0.10745579591368126,-0.08400893191993652,0.29426833325730095,-0.30720004244111476,-0.39779203380355244,-0.3650860753213456,0.025090671388940278,0.25576485635515533,-0.12501649867045528,0.22045778377002934,-0.04314467475895989,-0.4146761642371659,0.0853062409839156,-0.45981097545465965,0.27799899865779976,-0.15373416880785218,0.19993835068304944,0.20715651368124244,-0.03589052592212827,0.0445898904207116,0.33793891120606057,-0.0768404130716065,0.4057942488723407,-0.09041273435131308,0.31550633898726954,0.0812767360272243,0.2514809005667832,-0.26570252038804,0.42361092563886704,0.08456058594610572,0.4917550007774285,-0.4479387299846572,0.049489790363930974,-0.33968550750971094,0.4659722708007191,-0.0567750137098017,-0.06996968368532586,0.42347008451981005
-0.4449086556885897,0.1406097289363899,-0.19219119925619627,0.4990431852634266,0.3653127783282254,-0.0452612873843225,0.16676830158884093,-0.4056087997302454,0.4926622682216867,0.18886727825220084,-0.44849551420123107,0.3824280904989821,0.2007505920253464,-0.16256840138815737,0.31591124544661087,0.43998225123620693,0.018980876318635875,-0.31570379101471224,0.010196819207722752,-0.11531893239138596,-0.12270638142838441,0.02093123016922327,-0.11656697588812887,-0.20920680822301974,0.3321539307162883,0.290422915383439,0.22870278299260083,-0.09520594477430261,0.035834045398903114,-0.07500825150637341,-0.42578324625537883,-0.16522598763239849,0.4162355148774737,0.2764682661632394,0.15206516936983228,0.32349974514148183,-0.2632189103230922,0.33889572594263395,0.05784680860016811,-0.04894446374333672,0.24281896405984604,0.22111513871751498,0.08861446780553761,-0.4373863776854176,-0.3172070061868089,-0.458817164860115,0.3838099939207593,0.15432340216558582,-0.2638499754312681,0.10950753912772404,0.1413336161716532,0.28167606181543137,0.4330281670824756,-0.4546507512939399,0.04617646594819447,0.034160114142187004,-0.24282329517548124,-0.48298439103317653,-0.3331107454528617,-0.4251101370552136,0.22603592962307661,-0.23802575363685646,0.05855715487085156,0.06767051972806015
0.11465052450757962,0.21673047343116736,0.4661925756215083,0.424282325862107,0.1853664292420104,0.49241150030512904,0.20320116155929913,0.18008515037600192,0.12644940038511965,-0.4408587170489406,0.14186210354876805,0.1561784798541006,0.43231676236368566,-0.17918059820271126,-0.3919998020362108,0.2909710955764032,0.4066129214626797,-0.425620619172985,-0.3313559693430346,0.4263265062711791,0.28365813232197334,-0.2074593080708102,-0.09825415471487409,0.3708862661714136,-0.2697081997849551,-0.3820949447723548,0.06632304031696312,-0.2802345192899157,0.17200647139549552,-0.01704305434461828,0.22501960663358667,-0.01915528230329755,-0.3374420161533365,-0.4790560519225225,-0.052036902192997225,-0.03393747961797633,-0.4250097404816233,0.4595276680586523,0.4689569729235754,-0.25626147573639707,0.4063063775684248,0.46124846579565126,-0.3447733385696883,0.37388688413141613,-0.09651285484270794,0.38999798609409386,0.10184335177850135,0.43635730302722997,0.4090154110030343,-0.1240818410292649,-0.3317230585178933,0.15165654879606172,-0.40666978429382195,0.13223064859967248,0.2840123874060867,-0.17789016742161018,-0.1850153718539585,-0.4046936905499053,0.1939905256470621,0.06746137401436525,-0.07391154001183414,-0.016564319150785156,-0.49192132101949365,-0.35650754527026207
-0.1658783236825272,-0.3389826141479344,-0.006379503992562874,0.4113728142862082,0.372856303990286,0.14193767758176556,0.21598083605802654,0.4470852534040274,-0.39457759209656046,0.42490550639336255,-0.4799798712972458,0.3224096665263221,-0.36268596950112186,0.027858961153709783,-0.03260087898587849,-0.159706185879049,0.016061703449143927,0.12996573728973315,-0.18924993029294995,-0.20391168757523953,-0.18531999582672493,-0.42663694216247505,-0.11248549800947566,0.03032733524699105,-0.26306843932860924,-0.37414673477138705,-0.34892210776401783,0.4796839500682819,-0.23446285758840985,-0.09850440109078978,0.31765006427543707,-0.07712930328078998,0.45316978681514497,-0.4882657932994262,0.039765207813943326,-0.2575302406947735,-0.10362250991334326,0.19047053749229315,-0.436499000963056,-0.23292226657873127,0.15993732291270857,-0.2788083119219208,0.04623414089262212,-0.33157529068718444,0.11221051989691821,0.4616027208797646,-0.31520419792048826,0.28712566699233166,0.12790718843597326,-0.1463032884738889,-0.4486003294347787,0.29612272269843276,-0.32731438885783515,0.21199036655574588,0.3288124505564628,-0.23924138152005214,0.2735028838615412,0.463293160760446,0.17444125361481744,0.24700303876167307,-0.00914021465421666,0.23629688598974463,0.18154811099243728,0.20392680899422932
-0.3927445578820745,0.0971494319835442,0.3692398797111771,-0.37442017620169565,0.48809375333976646,-0.275070638291105,0.44391632403429426,0.32559116595685067,0.06646473825278909,-0.45632766371421873,0.13615098951205196,-0.40651168390480413,0.027128916944902826,-0.2809102073222912,0.41811681535007283,-0.22467116020837385,0.4410574631491012,-0.1360477747563495,-0.1482232383676913,0.41184043088547906,-0.14990407165601105,-0.4784726584229957,-0.24981491442295484,-0.2588205797406009,-0.31707824385588906,-0.22099341066600448,-0.03103312455631474,-0.06691567067378928,-0.48397071612252424,-0.18350203972472906,0.2762179480754854,0.42364043692296394,0.03964357708564192,0.3423073318983928,-0.4388307328051099,-0.484938912086626,-0.4076371588314125,-0.4407840217187926,0.2990319136525653,-0.09702217327292179,-0.09021961250818317,-0.2741914953916294,-0.2703420155543564,-0.3709867251436164,-0.424160622956306,0.235324134461267,0.23362970153504503,0.05441309118383242,-0.45482365458962676,-0.10088758617680871,0.30594557561257185,-0.3730924398978671,-0.11547987564256407,0.2697076801069582,-0.14616911934975957,-0.41427189945907883,-0.1530356535935009,0.12806045945177802,0.44265806765419347,0.20908716400577088,0.2559624862652097,0.010831994708083603,0.30956188207937496,-0.2500332220224818
-0.23254561178970412,0.21251055258908802,0.05384473900955389,0.18482158504651003,-0.34207947451718124,0.4030557274366988,-0.31703400137696136,0.3818414848678938,0.06492031159108524,0.4487989349052305,0.00206004339366217,-0.3757125762643817,0.29186935713136075,-0.3788281892793384,-0.3346599567842949,-0.05240237831715605,0.04537688779895044,0.4145537842598529,-0.11209201608416253,0.11691687005428453,0.010552384662699144,0.1493103879733525,0.03912031256552795,0.2699358969786837,-0.011523548751847634,0.47544116665396896,0.16809674150687492,-0.03569761828319057,-0.3834420893729861,-0.4100552503532056,0.14701534046186848,0.3989483927837333,-0.08375337747100431,0.47969120646812546,0.3615588866460877,-0.13667117554539404,-0.3185206045482869,-0.451191883511465,-0.10350743429898629,-0.35787938202632563,-0.28385358479984735,0.4241040907446779,0.06198724851104764,-0.06427881054779461,-0.232352363286704,-0.2704565430853779,-0.20614125659043958,-0.2742074643141625,-0.03727958376392704,-0.004939554028650539,-0.33628972379317956,0.3414087020053569,-0.3770759892077539,-0.30735498797490957,0.23941439331481906,0.11814400023694338,-0.32660975997644,0.2839088420308702,-0.3036548662016424,-0.3175206411711502,-0.26504101407017605,0.21866361690622926,0.2652835742408799,-0.025024438055709197
-0.198216405556638,0.103111650609929,0.2080408012066226,0.3121781506632353,-0.24038707592542613,0.30201121876109915,-0.23388177376886915,-0.003431228689584509,0.01806121855883913,-0.2542126340578369,-0.09922954514586813,0.08644829391802111,-0.41267686053769514,-0.3966008768866774,0.0022882602653877537,-0.2410670056664697,0.18158242324440854,-0.05769579417896259,-0.4984180345192636,0.12149746465566447,0.426234473439974,0.3056066384565116,0.27602438199148716,-0.27639838949609474,-0.2597231868466936,-0.2565851135908557,-0.31006141556895406,-0.10242944657915709,0.3524629826901774,-0.2859867931278361,0.4071616320438505,-0.0025172017060766105,-0.3411794834962019,-0.4129883134332431,-0.3660624049911566,0.16453598610336706,0.021502655707999474,-0.01831940725367487,0.46617961161126364,0.1607091974749738,-0.27105778025978144,0.1671415048964049,-0.1766525165534823,0.377136644850083,0.29187455717095856,-0.34703390060320216,0.030820860774638525,-0.4300088830897626,-0.2183794182345175,0.43741213946482727,0.0008969355844412608,0.29265478010878654,0.21708165142549274,-0.3562138904147846,0.0487410885043168,-0.00382304401314959,0.32708726861844173,-0.015560809297282652,0.07190133750992889,-0.48380196233457046,0.11207263433005321,0.368547672810288,0.14410578862023804,-0.19595198831332472
-0.1613742661016873,0.4032876565602085,-0.07237222258577691,-0.49968854710445204,0.46946152810447916,0.3377522741620207,0.23743033862553087,-0.3000981695019166,-0.023875405790226234,-0.1591272319942374,-0.10744475508455409,-0.24090703145643094,-0.01774084499000611,0.39888773714140413,-0.06827294666705325,-0.4126892862434915,0.2125940256345058,-0.38005253247919146,-0.3840500283446396,0.41505084322535,0.2131162712877226,-0.3854931480649361,0.28040114686843065,-0.4849655930814173,0.03827059806244015,0.13776063902199298,0.33744871748492533,-0.46293653499471793,0.40977925523639624,0.44998157394583416,-0.45136343685507935,-0.13960545307006939,-0.47696428372383315,-0.4807005282401575,0.03851091095177028,0.3885869006107501,0.22533832198257475,0.030509407879090622,-0.3994704111942418,-0.0561316923965382,-0.30001819916070355,-0.19900489491364215,-0.18346981410098717,-0.12379111658026981,0.2512308646697695,-0.21035188003925226,-0.4860821990231435,0.4281995314770376,-0.44728786263022935,-0.01540937624657962,-0.19639598796907626,-0.007874833190755381,0.25259770115492763,0.22905494539488802,0.09093174039895258,-0.2758811180367512,-0.3771134903082221,-0.08740662950435962,-0.03795914516689214,-0.16829911091751376,-0.49969644332290464,0.20036687362024885,-0.20987742473831278,0.026143020263939665
-0.20776379513915805,-0.46783930201448465,-0.26394274773259774,-0.03704031674984859,-0.13962317381036615,0.043140152722196734,-0.1380276082260663,-0.3179153822445848,-0.48058212128494965,0.17208166405189862,0.21506904238605362,-0.0878788337986352,0.2979766660360511,-0.0958077365512996,-0.23619645775118675,-0.25137752189830764,0.12384283804513652,0.4092491860078876,0.4843513276355115,-0.07481136851702413,0.14637756191491036,0.056511396335676034,0.10779684577500304,-0.20601922911872123,-0.07163226863911015,-0.18560797101147847,0.26570039091897213,-0.18725504851306557,-0.43153144695401724,0.26882869972327195,-0.056435249073633564,-0.00038507278095234465,-0.48912747017532937,0.29038716563507316,-0.41602732144111176,0.21907016668425416,-0.4464091323066545,0.05095811772670511,0.06782270528740375,0.009571984647573917,-0.3773817680205134,-0.3784806057244915,-0.027292711905805733,-0.419483962896971,-0.4860140969911656,-0.32118942580241217,-0.0738577840728023,0.21869424624307743,-0.3512101717531728,-0.28658162326858455,0.20785805103734978,-0.40894562933079226,0.21601554598473738,0.36493394377871136,0.3797654583490293,0.23572480852516597,-0.07563614778948768,0.44207648138612343,-0.46540804811073844,-0.45401520279888774,0.2774397618032246,-0.4507725597130007,-0.3863839352905675,-0.24941082100822165
-0.2714830868744678,-0.28454588483299403,-0.09875136362330583,-0.4924104995990221,-0.17978041511018777,0.04473337556455903,-0.30496838959165307,-0.42711527968156865,-0.15857351927951607,-0.025220657012062442,-0.19742960049651082,0.02485816763940185,-0.41619589175851823,0.02728080867197402,-0.22000513212755562,-0.250442842836698,0.3882498130613239,-0.4529938553241053,-0.3360448767598927,0.35505017631456726,-0.4390293513140778,-0.1474896197428413,0.2835993812343103,-0.35406141395404067,0.41062170728604386,-0.15175212996627768,-0.20529368552625815,-0.388485613692778,0.016366165837443547,0.02183790808629149,0.2321322228443493,-0.4266092083075127,-0.4920966704339239,-0.2778818908975841,0.3519991239774968,0.29853178784182843,0.27756193782089367,-0.08144728447378019,-0.10152533864673474,0.10405645268226804,-0.4816132336769315,0.13497333071891837,0.24962788994872376,-0.2587637970032002,0.06236354427522217,-0.14509270929037255,0.1519207002836842,0.3970830435385383,0.1620816135136791,0.2850347947259596,-0.3422650158602116,0.2304336171273299,0.385272317046892,-0.24143411160513484,-0.3103814696941438,0.3760065328683735,-0.06814526606730431,-0.24468994966926516,-0.40303220688506597,0.4719717148560899,-0.24997293890918276,-0.4164827758988751,0.05651855448098786,0.3195885726341925
0.24264712014358825,-0.2708203921889981,0.016954838073325762,0.36168599913906585,0.17528168469447725,-0.018536919969384058,-0.028004780657591655,-0.03030290246489592,0.14853148332262944,0.05989867055783915,0.3366634099914988,-0.07400268203299615,0.10288249030843488,0.04236317823751046,0.08357504177073716,0.0557144165764164,0.19632716975003817,-0.10237672906479645,-0.050567227206457066,0.23133137111148394,-0.13589707605349693,-0.49830139428298054,-0.3118815253544047,0.24933744117121093,-0.46750042120344026,0.4759925911091234,-0.13332294609086726,0.022251887490158828,-0.17841507758871422,-0.07349705350282465,-0.14597060840854914,0.43486954222194363,-0.4215452237620695,0.4300393173145314,-0.0014109171467884263,-0.16681606353577977,0.3379524526363017,0.29023470114461836,-0.27819864115593895,-0.3193814665169369,-0.1869604246164488,0.18803788660468435,-0.4180978661952996,-0.17462635351094713,-0.07809752159663358,0.2636212123388524,-0.22687595744006145,0.38949155569518523,0.17173500855999768,0.04125337653851757,-0.22435545489394826,0.35240379015561374,0.13408445130758195,0.3251871833695039,-0.044514351312310574,0.24094851442656873,-0.4589388668345934,0.26761739690211483,0.3291864203425061,0.19928909358535385,-0.3852139738785168,0.44974333185224946,-0.3518878248761817,-0.2779714631745459
-0.2941307210336117,0.40179386776955517,-0.15245745827092672,0.17284317299390362,-0.4562259046157011,-0.24960889469348307,0.2177619639401147,0.4060924686054198,-0.32417808790885755,-0.23118576068952018,-0.08170820427206726,0.17606503734181866,0.41979647191231906,0.3627448281565424,-0.17256503723215544,-0.2311216335422926,0.2028685485491848,-0.022814501786052488,0.35051687893016115,0.2803315458727682,-0.3491415986088764,0.0016256014358371207,-0.19921490908563833,-0.24673240713157335,-0.02544633137315805,0.25764056842664285,-0.20787719670118632,-0.4296649442658131,0.46104828080211224,0.022512265258707198,-0.4341674926384201,-0.13670375646869826,0.0399257114808661,0.35987359697924626,-0.3804956324773355,0.020108610633811308,-0.08392132939022096,0.10028086956603488,0.34571746031088635,-0.07865609674651924,0.32349141259840286,-0.13044792349936807,0.17658187806447123,-0.13472978800289787,-0.09310461235842882,0.2794206113458707,0.32115204251424967,-0.3216836949911358,-0.05981756586572973,0.06030805388479865,0.49642054503616906,0.13760052790753563,-0.4007735470779117,-0.13221937074894985,-0.4288298645656695,0.20424367753055117,0.1010087768551935,-0.4057250511393533,-0.30171049563293834,-0.21386647304234396,0.4582683020077033,0.14742690820592774,0.4450441878033077,0.1533096468324352
-0.2970182680511001,-0.445004447803369,-0.3638606741390473,-0.4400771250669272,0.24324046063387783,0.30732635213403325,0.35279969584792836,-0.3974123210168501,0.13146803790306116,-0.07082702432331955,0.45684013327436523,0.2813063248904917,0.3250437233713659,0.4355148789172596,0.3463722052268554,0.1951330572809712,0.4364885259123932,-0.3861935017100505,0.1301526215999167,-0.09925977308268646,0.02609172022253825,-0.07176802054595577,-0.23593020939078657,-0.32785491777018405,0.2887034615449158,-0.08473931000788665,0.4190998337786178,-0.17819627825086765,-0.09800863480102673,0.05958393335323031,-0.03692439875422249,-0.3239354956075249,-0.07549211130267575,-0.47672776876796397,-0.3377115199517978,-0.1481001645550598,0.14328128548491803,0.261229167581177,-0.06492415562501369,0.13285608200023702,0.2075083580368703,0.39383286605301915,-0.4938675099955255,0.17005347724540787,-0.08905950402331514,-0.2101361894561612,0.3791999541591853,0.1654938979379339,-0.2520972563662088,0.0031564470860904192,-0.15035499895473708,0.3444618037177538,-0.4827257133939889,0.04430396088599409,-0.37278207339010294,0.27474975249485567,0.29092576158741756,0.4639942436311367,-0.22878058661184303,-0.17202022935823547,0.38822651835541544,0.030995974098796064,0.20059631378417664,-0.42811589545016915
0.46609737443090293,0.2807756288818901,-0.14320156380683258,0.30177149213932986,0.2732263988690574,-0.0055276302180847225,-0.44814822820394684,-0.3247406416687838,0.17873065391496323,0.4972965395996797,0.1932318688804432,0.1322588541695191,-0.07790051055043029,0.09401631336380556,0.26120458625313103,-0.0011603489989230331,0.036060735832928126,-0.24639406415931603,-0.42609902188465887,0.39883491811288285,-0.29006106769203255,0.1186137975280237,-0.341209782213536,0.38020392781133017,0.396054304622139,-0.11246127244665349,0.060974073857522626,0.1792870418537813,-0.009990245806980047,-0.3929039262667782,0.24462956364482158,-0.3234876160619257,-0.3067634477311575,0.4342483854546437,0.20395610281450494,0.1301648670947947,0.4330653743506714,-0.42257153798014463,0.3922674990688765,0.25343037385187595,-0.04869532470996274,-0.3256143572859533,-0.3342688501972094,-0.4800222529936685,0.3510720920055509,-0.005040927559622044,-0.14734973695471404,-0.303090551776388,-0.29721034262199436,0.27237976238708006,0.2919190348088364,0.13462058251473152,-0.04290500401654512,0.3017613956712938,0.3619451722418634,-0.15251642309712077,0.12198541109542616,-0.023405491618162688,0.4057171875171909,-0.11431232868428914,0.4334982959243927,-0.1274352700577282,0.18524960413819624,0.0716345801817414
-0.2473330240451419,0.016719484942368967,-0.06097769809932341,-0.012148896005073961,0.3900602105493006,-0.3689602808416636,0.06577427665040558,-0.0413677261869273,-0.13866156322819256,-0.1795293957365348,-0.05246975717715441,-0.46444671040607927,-0.04711735227476682,-0.3611875292198674,-0.47086816419422073,-0.09890476781823893,-0.4651115354919394,-0.13593537436608943,-0.02350261552422428,0.2176299918059399,-0.18482296107561463,-0.38999101886990994,0.2194173879546194,-0.10852484340245128,-0.42769678678721973,-0.1435274740883743,-0.49182054400063147,-0.04352913403116593,-0.32828872549733557,0.006579827753165679,0.31993207792748324,-0.4212600546522346,-0.010863961424149582,0.09409656962104918,0.2673107710514734,-0.16564739293681802,-0.44406322946029864,0.36479915905036,-0.19315076232568862,-0.42825006178033076,-0.29339451426332563,-0.1667132390042363,-0.22671785425707597,-0.36337560828001036,-0.1457688471515518,0.3263918826479427,0.394600929177646,-0.016827059684706436,-0.05253732742394196,0.0046219553354298615,-0.14920079319234975,0.06943367029048209,0.39606734546649613,0.46761961233225635,-0.2435424587426439,-0.35734200517523196,0.29730209698774945,-0.45245285469687213,-0.08445210921785429,0.03358768463767492,-0.3771397368410322,-0.39069658931842843,-0.21307900068959174,0.35475860901864176
0.0005385263359819481,-0.13120970252491987,0.04641725101807026,0.35878607810418406,-0.1284983002713408,0.19477922874259723,-0.1548415383579403,-0.3299106945422994,-0.44278461204040076,-0.09525255374389352,0.011024506069265527,0.4818902779286216,0.3367268353871661,0.08279299623462977,-0.4627559962508995,-0.2540886694351624,-0.038128403266020294,0.02500651568407497,-0.49099180660722397,0.16708931916723457,-0.34421937905448463,-0.2495015923629988,-0.3173274001187307,0.021516426243594067,-0.16236097163630697,0.12465277622670534,0.037050510075432475,-0.49161037476342656,-0.05074873173178579,0.27326155303663646,0.44888967506070143,-0.40269792494489715,-0.45363423831464456,-0.08147646327571778,0.1360858653840077,0.4854408553733681,-0.2200253683701276,-0.464185148926538,-0.38832875941336564,0.25268344383346075,-0.3405365063066299,-0.3192900986500504,0.012218282330882846,-0.008680100789610345,-0.04340489373700923,-0.22543273667126557,-0.19406884056239798,-0.28549089924688026,-0.4896968584459726,-0.3303634397826919,-0.4282839120963048,0.09785374747489284,-0.3997047827112045,0.11983168014317358,0.1989779880731264,-0.24995988130101926,-0.3138823024061892,-0.47509917522552386,0.021147049740490975,0.24684892350195387,-0.34227128133283524,-0.16323116359451373,0.22083803718948647,-0.21604616507703728
-0.04414222880459495,-0.08627756898583733,0.43552451624326616,-0.08179670133711614,0.4467071308506221,-0.4481968516242676,0.46593669893496514,-0.07394325433948229,-0.08666472490255939,-0.24367525044068472,0.007625825473864478,0.4750707195955658,0.2382801253061183,0.19135270067087962,-0.43507868001939665,-0.4369282349650414,-0.18127838321089668,-0.17745859067768727,0.49808648368254604,-0.22038529194909395,0.20154546513294125,-0.14896407241419146,0.4970068577663074,-0.07346591845781819,0.21954554865115583,-0.113954253314973,0.2993231577795572,-0.24492619314460373,0.014667801332970964,-0.13517768291531956,0.094954725166296,0.3226946572878838,-0.04012813583953684,-0.2717355525920799,-0.4645378719850154,-0.4571273247511719,-0.16095725291453172,0.3877278607747182,-0.23219803009750228,0.45849999317829493,-0.29630013871765704,0.14565934224317756,-0.3154815276225477,0.34397046772948026,-0.38779414533069084,0.2239072684775606,0.011759993392862378,-0.005235003077068812,0.45997950479387284,-0.04192471529446762,-0.0718726932871494,0.33518730934485197,-0.16131764727705983,-0.05877667086141958,0.08240836979002153,-0.3951781563904035,-0.08328442675214465,0.008990434701084404,0.19865775001172803,0.06066138416559497,-0.2475200094038248,0.21086289207956888,0.4113889443275467,-0.4514870419872399
0.16137002439301928,0.18493116818598065,0.015198855435102687,0.010015677898198239,0.155890572655895,-0.4779513552682248,0.22402901794949037,-0.06900624398561483,-0.4452605605801849,-0.4604135094957489,-0.4240851532314369,-0.44411387711023625,-0.33348254479164374,-0.3469636099631729,-0.18567177312712735,0.49563828017359524,0.3742857532921646,-0.19544183914337393,-0.20490569793847657,-0.4434074833725614,0.4366950103718299,0.259767415821444,-0.01598769543505635,-0.48135146497811726,0.14585607761789865,0.43064028440538804,0.12615710200097274,0.33005231238438393,-0.31092988923700987,0.20714058573690275,0.20602000258211983,-0.007163030797225911,0.23427039791563076,-0.36399448563530784,-0.31739955666353903,-0.07272531351667144,-0.29129158695754204,-0.49825568450533586,0.33887442426703607,0.4379308600620976,0.234046266756042,0.49713355069846543,0.280447869925037,-0.2009041377813109,-0.13469151762998266,0.02652224690025773,0.4383043884012403,-0.23632081678897182,-0.3053377921717883,0.2030194698381328,0.18637563087343034,0.4479218297395491,-0.08423140998195455,0.3547964277001081,-0.3881820523590697,0.40160260857157526,-0.29908113637896305,-0.0034496795867801078,0.3641596002802996,0.22525028825050697,-0.10410845726919754,0.39397670556510644,-0.258076354748605,-0.15240114631708762
-0.16643351207786866,0.083077877565789,-0.17838427502586707,-0.4694880591563359,0.47043594670036615,0.3870535403895441,0.2869298671311372,0.3725414377975005,-0.03431626341041005,-0.14283655800057415,-0.17745375012860343,0.43956145967336435,0.479319545896407,-0.3150835576537454,0.15334005265186545,-0.38066616928235913,0.49233589600414773,-0.13752208121005544,0.13539010455617217,-0.01394935907514272,-0.47923504513652765,0.25809817284257064,-0.42293162081527136,0.37947397021552265,-0.4758124332762381,-0.21900216523511434,-0.2736441771377084,0.21215809262923813,-0.36241528478563545,-0.3863758639834709,0.04203931733129518,0.34006956119093557,0.25520990544707045,-0.06715098375787537,0.46552937429655783,0.28223060480422835,-0.2950934780738752,0.40779244755757615,-0.20675676348933797,-0.1923913325613324,0.4160896027069956,0.31383419307592986,-0.017761906850040865,-0.4413948519813804,0.032250177828711535,-0.3277435120324341,0.42228306267516835,-0.48399757872521765,0.34321026776135444,0.24482576956265878,0.23291439224635924,-0.4665863760591421,-0.24141339899106573,0.2558730043265377,-0.17316610118056003,0.07546831507956064,0.006009498381060352,-0.057858245241389716,-0.4936756258800978,0.18943811193548055,0.16069771752725248,-0.42522822549810085,0.23495672258313594,-0.14794039942693915
0.31512412466813067,-0.017523311319538992,-0.31564844577370604,0.046470529654282444,-0.28061293195030323,0.3711094478476371,0.414427308791516,-0.4154565515534284,-0.43076531772071747,-0.17221856288249537,0.0699610382178617,-0.2930692382124575,-0.2241399203073885,-0.4815367688338909,-0.15277620761318889,0.351931078756196,-0.14128522791028264,-0.28964659841249074,0.3689478248678836,-0.10724105434829417,-0.11929025622983008,0.008625693390437283,0.0814829601820013,0.49933690112053275,-0.3939848825773154,-0.10993894078300287,-0.22377889357683195,0.2627647671675145,0.401468073437674,0.10380512457518143,0.14691094991141507,0.3413178282050965,-0.4211225295072061,-0.3698215074231017,-0.2565189766495111,-0.4502265108517495,0.487904933741272,-0.12418746697911409,0.2966153532250856,0.47210081991371733,0.33039846077114277,0.14837094379978766,0.46417894166157536,0.43080516389142964,-0.314088033891324,-0.3800968629681025,-0.20039176461305086,-0.012453732785048743,-0.40508203762820083,-0.3456067046362938,-0.1692766601542368,-0.04965568406025678,-0.2941760503659845,-0.1578022230685699,0.471349856802891,-0.19350156872230656,0.4009937284984597,-0.31498534689423874,-0.05954458776840221,0.3293260088326996,0.09488834142446911,-0.3483374583759985,-0.3169246249911024,-0.034570442295898896
0.18087048720608956,0.22864321001276522,-0.3719467087052514,-0.3543184128842868,0.2749822078156202,-0.2025496967614394,0.36402614501492403,0.48290223906883145,-0.08626195163757633,0.39684700495416625,0.062360484880563116,0.23233879997038231,0.04444675172886192,0.15067779629057165,0.31342493501185664,0.48611198039078707,-0.409547176169952,0.2886748392082168,0.16784680479571545,0.24707477807396783,-0.22691821527058176,-0.30343336602832816,0.13549387857108097,0.23667969356136387,-0.34117136422599265,0.43698259207279544,-0.35122023935020913,0.3028902806355107,0.4353571207892881,0.467289344392386,-0.12278752151075167,0.17873591914714126,-0.03470443120910993,-0.0012506160425257984,-0.2500653233146599,-0.04273124390408922,0.49184984573714896,-0.3460733517287641,0.21256405939933098,0.2974676591332386,-0.20963284965121787,-0.1521788992230682,-0.46339373242268045,-0.19102305532015074,0.27983729205086705,-0.2609889431674913,0.26205167954883146,-0.24968406779211205,-0.1284102819060955,-0.04565656815918934,0.23887318500265164,0.3062135022162523,-0.016184263171713897,-0.06399940306507024,-0.30765222702531714,-0.01569614676558234,-0.4068506685583157,-0.10862640226661524,0.4868529513417058,0.3379996157428248,-0.3513294574112303,-0.4388641356205866,-0.4524548817204567,-0.05355129602996228
0.019634526464917923,0.38362456573342185,-0.2329567688205078,-0.4543026322286123,-0.09925688039476838,-0.14384382108405408,0.4942621346536382,0.436526175558812,-0.4238892201911142,0.37037914566247687,-0.04329237227481436,0.4252606839524865,-0.34003963360564765,-0.17348306610876835,0.4568424015104968,0.41981757894149874,-0.3250690874760361,0.39846382844190287,-0.06869943745839385,-0.018986311051522542,-0.27158384061026564,0.070998976272996,-0.30507981768114484,-0.4707050281440397,-0.19359838901720866,0.26563082345092237,-0.13588057534577352,0.1004762480037642,-0.3329263030704699,0.3745644436565062,0.1487971165444688,-0.2707687140306312,-0.19972401750261148,0.09015756360728178,0.28934241821493134,0.3962127263174452,0.47196782565301654,0.2163543117774438,0.3495728126026564,-0.48456646082204136,-0.0399187028128275,0.3023470094438395,0.2301027224073665,0.11343659116580929,0.47929296920974407,-0.2329129109778036,-0.1756565131599347,0.26663239755045265,-0.06546880377711206,-0.4329646275997928,0.1630687032188609,-0.2497932858531332,0.12983530183780723,0.06653142933106582,-0.2819674554196966,0.4486355501919219,0.18870438341456675,-0.2622517406764681,0.23929575678859638,0.1351122961543092,0.49203675426171944,-0.10621411335012604,0.269452478629282,-0.29845366384762045
-0.278417970881992,-0.2725236582441831,0.12498470145509799,0.06980280278707052,0.03717451567630026,-0.4393703248069483,0.4478497532884822,-0.041423399253479876,-0.4511089841607534,-0.0841329766363525,-0.479067608238695,-0.07393085005410521,0.3408962538656296,0.08148359115304593,-0.4499979973537838,-0.46068547803940507,-0.05871266338914294,0.09748702710377377,-0.33405494821912374,-0.39996167547067707,-0.28850425956235465,-0.10140959760239793,0.09939598413156159,0.2337445531663227,-0.12787498097302158,0.3407068680230094,-0.29249165709712155,0.2342195663294846,0.4770585549888474,-0.2855394835516529,-0.4766032150837608,-0.4337045894627015,-0.46710546918544243,0.02855638625498691,-0.10814543795219878,0.2518166274539272,0.14210238756709848,0.2545406840529948,-0.2705421181258476,-0.12609847897016374,-0.380814380888275,-0.29550789752765927,-0.2986843016923798,-0.28603172152584033,0.0455990375697608,0.29196339463440857,-0.39226070367370763,-0.39277920773847924,-0.3122537433226843,0.19998123482800145,-0.30617504045654786,-0.10545027284205438,-0.27215916513100225,0.16941415409995897,0.4900505957147342,0.32299162672040593,0.1280803576242553,0.3912401482887753,-0.30232221623990785,0.19646764765329083,0.3531213322901732,-0.2863698130410024,-0.018481954242327236,0.3344304993908994
-0.1075297615525917,0.45463698122400653,-0.10682538086866278,-0.18766013238935736,-0.3103709708947553,-0.20181462480771106,-0.10278786560650349,0.18674665255786227,-0.13197085477037862,0.29204353075103995,0.48085270541759795,-0.4929963620346954,-0.3027252959100182,-0.11457229434259808,-0.31185448440343816,0.0801616243925698,0.2329675716967171,-0.3997124493586423,0.04647330965216889,-0.2229226798391541,-0.47936444309510495,0.12884705775829364,0.33845457566830073,-0.13651962328540146,0.038505790540252716,0.06886293532739529,-0.37626373017032805,0.2508622392783231,0.05686290029290264,0.03299023422086156,0.02078018873966303,0.4055554321527274,0.22297405671466797,-0.13311480108327922,0.3214980400267514,0.09096205634575438,-0.1012112244969286,0.2953994287156497,0.4175917631562761,0.38956088148502677,-0.19723089956549505,0.007078306985589866,-0.47347941807167576,-0.06420269588204225,0.18856144868236102,0.48304695774942963,0.1257169226304241,-0.25734734803314663,0.2030946326922135,0.11751615936752224,0.4635000759565737,0.25283378164881554,0.1671568773068287,-0.29555927440317314,0.31379494248600437,0.2636231806891147,-0.38381759444429425,-0.4703057575832614,0.27383407707038987,0.12076609377784941,-0.325550894637383,0.14634989511517338,-0.37011624773504037,0.3350389110087598
-0.22873665798862308,-0.4247027267351294,-0.21597041874936335,0.33038950517326104,0.0639296656306505,0.09718345925080751,-0.31862715111050155,0.4375681429810674,-0.31730421251491836,0.15691242816714213,0.47430821972634096,0.013557249919305181,0.10232647582996934,-0.09734272844965697,0.17491892803223752,0.05545883279082309,0.4431460126969712,0.38108361786281864,-0.4522323934138903,0.4393467409253804,0.06949015826428784,0.2679464070908476,-0.26160144515410133,0.018533331117841056,0.05309025643071641,-0.4421251406623633,-0.02522034920995142,-0.13090546691366728,-0.4784346483547402,-0.2031743306215733,0.21511177612240973,0.15641920531933162,-0.12280544527936982,-0.30851832908043564,-0.33546603789341917,0.11326417541749034,0.19901737649879292,0.29532741745716307,0.17872298633620287,-0.39408882655859406,-0.06385668952197615,-0.4740680670244936,0.0701379941637339,-0.48975555086031347,-0.26986749412951405,-0.1997623074333008,-0.3387032951408547,0.21352513400536266,-0.1452246856154989,-0.2816247557204332,0.17762008108087823,-0.2066345125002016,0.0985822885290637,-0.30946298866042077,-0.23445124725552802,0.003316934920529313,0.336898718418972,0.26549625013279554,-0.2227007512574553,0.006054806293013915,-0.37759619153924107,0.3122783158031657,0.41600279133580753,0.38587011810665495
0.4418006520447324,-0.18211098559299066,-0.363637304801325,-0.08915519508959502,-0.2618766905562378,-0.4383452473852528,0.35644145629203017,-0.3521814047601919,-0.29763936847338424,0.4418564331447037,0.0032034304473564923,0.043558225288781394,-0.30219158707288635,-0.2718458942937878,-0.21159917475264484,-0.24714743613598283,0.3965781544784913,0.2612545167846859,-0.4856807812981684,0.30319010736569296,0.11920558829754846,-0.07825371137738868,-0.44216308320973213,-0.31334245661894905,0.4259329181750924,0.16121702718605146,0.27636545699851844,0.4335211263659974,0.01802816871461843,-0.32733181995681104,0.48350736498064706,0.12386499467485812,-0.3900708583603012,0.18426787605707895,-0.4315562029050459,0.4122434914634766,-0.3361250026319758,0.2504518999487403,-0.024598175438399483,-0.20687943823024607,-0.13806621201246333,0.029801485841070008,-0.40899514402681736,0.15672585538436,0.18733358089222274,0.2219905274556906,-0.19449147800658434,0.10874461271275981,-0.022904575114559678,-0.4755533151214725,0.10947665181452249,-0.13885070832392699,0.29795909710133406,-0.38718731602988543,-0.23333547019089362,0.02005436342212108,-0.23994790238325853,0.44970515181762405,-0.015088113264687397,0.07690628225771068,-0.21471070438377127,0.4229203299260327,0.1297904265251898,-0.4703075485165732
0.45834906816405663,0.3793384357724984,-0.06637091635091741,0.013540536870034647,-0.34028969138874193,-0.12384266621612139,-0.411022433504007,-0.35387374547024897,-0.2141473077769146,0.22119865693207763,-0.05874368062184365,-0.41059589754352155,-0.16925856735057132,-0.09888893859409215,-0.0006760375111717898,-0.29605760928059816,-0.1442914948073642,-0.33237915571424137,-0.043574298519442944,-0.006418516163909094,0.06319152822866636,0.12235807330457404,0.32590589757352406,0.49711645766958434,-0.08239665375202737,0.04838943367283299,0.15219139384673508,-0.28583015444959986,-0.23445998678657226,0.3984955423038897,-0.4921687338464748,-0.060986541938496064,0.4000110593158803,-0.43868759551024417,0.19837678722030339,0.30799514511972437,-0.21163855619339206,0.29196798512338096,-0.05096569589849825,-0.3990619088984383,0.43546911838253455,-0.03664960271522849,-0.4247034005470124,-0.42323955983074363,0.17155636459195822,-0.3227395726473721,-0.3106870692273076,0.3589410362108336,-0.04961881067120416,-0.21903050398408924,-0.27880222293492507,-0.3823315486695299,-0.03350537155452432,-0.3637910573109011,-0.03349907674523961,-0.16400900514051736,-0.44656746180102574,-0.0634873740205017,-0.4040628093779379,0.11132087493842513,0.22396593993714353,0.3748077209455929,0.38058624131632324,-0.11264285008080438
0.2133673907785525,-0.4977571386833476,-0.3106069568594019,-0.23057097184032715,0.20273427418560452,0.1913288173691038,0.4155809469127939,0.06374052006925479,0.21858654018425683,-0.14451238962100466,0.05811236545355636,-0.4001588690561051,0.04706147385158643,0.24914545740426775,-0.17443990692237388,-0.25965708110465535,-0.1409234970998594,0.29325035763590146,0.2637886562216043,0.484570517197517,0.1772977652388149,0.39016281482305504,0.4725188296160283,0.26380211662678144,0.09481148123499539,-0.1376142076391793,0.25456260692075017,0.35184881782710964,0.196030794501319,0.3377134291630767,-0.12302784883558182,-0.4393386025630583,0.08276415596844822,0.18793944953379194,-0.13660695060929606,0.1693135032753057,0.4878673842120298,0.41988390261301956,-0.3437932379747709,0.259052371959692,-0.13461145089688314,0.15745725699582014,-0.10091808885378672,-0.3889929819335197,0.07809657723554253,-0.13334020768913452,0.28892952100789615,-0.1957129192052935,-0.3890474670981278,0.3555942717267173,-0.24775562796171552,0.4307155823012421,-0.3889809352760114,0.39601572411880626,0.21005938468038077,0.32320457595549734,-0.47027596829937585,-0.07440907348618336,0.17461754692467746,-0.15965151817521617,0.4367662104483536,-0.43626787091431574,0.3677097255679358,0.38087311102118027
0.47851545921457717,-0.0025490319833853525,0.01707697497544669,0.3591220243177945,-0.11424759198643619,0.15624658980232042,-0.24752446531668515,-0.06080739971287891,0.13704359561067236,-0.49526371573808775,0.11918196809440007,-0.48015949175700523,-0.008919096323158182,0.3615118115495479,-0.31429446060876104,-0.2718483110758701,0.07345627135292454,-0.04972447387395634,0.2408962849252374,0.34043652277460157,0.08546905712479214,-0.05374343113682395,0.4496423327129532,0.18674843184964196,0.47788006485341117,0.040188473435206595,0.1395894715746816,0.062276457698213106,-0.2547336443116579,0.31585828020044526,0.3222861615113384,-0.1983435799825674,0.28974753142788423,0.01820880012503301,-0.3675084411480969,-0.4193543907810722,0.34958281733541885,0.42980749669010165,0.41853467278114276,-0.04529405690044819,0.10311873704340246,0.3130517717511634,-0.20632801330943035,-0.3937172195379237,-0.22316624397559381,0.190218876437386,-0.16787632772134448,-0.3317877798489238,-0.2601146128774223,-0.053534141999452445,0.2668922104718593,-0.013509315677689981,-0.1771641558395532,-0.47272679720666577,-0.20459594610361193,0.03225889035140117,0.04780863530366153,0.33032854312580473,0.38124195946438333,0.3455639345783572,-0.4833428817723612,0.19019907698510174,-0.306073755401221,0.3211853154102272
-0.3175498772494262,-0.18247445192303252,-0.26990702318488946,0.47287210355180875,0.22902025269764492,-0.3949400698276889,-0.12143112841128889,0.1436487746628229,0.031740853344900954,-0.21380965817431435,-0.2626822142688009,0.27241728537362875,-0.3474154178273936,0.3433595522508768,-0.09008532417476423,-0.21233881158397477,-0.291935198843449,-0.02862274857639463,-0.17760892942436457,0.2988004976877945,-0.4510339302714141,-0.1642045228109716,0.4788205758569858,0.26247432863455,-0.277195253771355,0.10023266850050194,0.0328369739152663,-0.48074572579038594,-0.4514344627742816,-0.4270292617972145,-0.06195117512808701,0.41291966005830083,0.11912552715238445,-0.02751332871965756,0.42383265771150247,0.45930820794743865,-0.03987410037772454,-0.14074843127315323,-0.06080803254656869,-0.3651745430497334,-0.43210301358816355,-0.37675656419096354,0.45474983097740906,-0.4633544976652388,0.2899554170621351,0.02298676852275927,-0.12032569182120528,0.20444908305278475,-0.07958613269943099,0.09358077104835805,0.1374991334218062,0.04527986680403351,-0.13219199359053374,-0.10487425308901549,0.27221924568164124,0.34665464556154546,-0.1612950277800183,-0.03238135181943946,0.2500673573231639,-0.37121241580285713,0.07222295625704478,-0.14068540262090296,0.09508323743710445,-0.041229884857884536
0.3481415169537726,-0.17560187432710167,-0.3467082417787557,0.1800979108922639,0.4195268945393743,-0.04939353212220293,0.3275352887937498,0.3488132324297043,-0.46781471602982594,-0.31243438637463117,0.2309035112759581,0.42572263391954945,-0.11895435378838065,0.4421750735222246,0.4725189115724149,0.1998179777058856,-0.2794416396782927,0.32838789086248166,0.09884040690904505,-0.045015233822639666,-0.0645283952190207,0.3927689580678795,0.045111653648834515,-0.2760002197586001,0.20026742559870114,-0.422821987850043,0.12060323572745701,0.4925072514417149,0.10918421140368295,-0.18959561674371156,0.06260250069322182,0.2085823890327394,0.028160198371931955,-0.0040202841647064,-0.31149601461901144,-0.03444270861076315,-0.13030498969848497,0.19957639728653076,0.28492218851341033,0.46980739942277194,0.26604548225460833,0.2886859009921019,0.013094582833859447,-0.3197576072159026,0.16422223563502647,0.3464966117620918,-0.03439100065007389,-0.10347010130224288,-0.0049002633918543426,-0.44975062038272184,0.4082292238754356,0.24383506539456312,0.26047419047005205,-0.3599015287402559,-0.47670148963886383,0.4553725588858931,0.27928647202406376,0.4292919779798444,0.47983048529356276,0.3423488823894173,0.3300032321503401,0.3350280373520348,-0.26037097897397865,0.22178090071388568
0.12496311293214701,-0.47767887775678136,-0.10243756445238256,0.38506593037632575,0.25367108814123607,0.00696162018317803,-0.16987703259562936,0.02098196303517652,-0.45653429765092873,0.1290330074862731,0.18893928392275205,0.14678570378887734,-0.12032562476597986,-0.1351307391352629,0.05977754460637341,0.35377081383660935,0.11156901280003084,-0.2759266629703001,-0.0025924851664306803,0.058934831786404795,-0.0978248406191472,0.3187674352986587,0.44810819856268735,-0.1119382728878121,-0.02731879452584257,-0.26686857350490456,0.18627081936517298,-0.05959696767832945,0.219745911992968,0.44257330612399304,-0.36019583272756817,0.43101744490257343,0.04905687996608055,0.29131368211997377,0.05527927985195036,0.14190111339180778,-0.051065823785525655,0.08054306897360042,0.14285881055652105,0.4881381164249676,0.22012641221290752,-0.11275273915974088,0.2003693630454919,-0.36855881701622106,-0.04884081266300788,-0.12348719342774117,0.07569818365187297,-0.08558278884067327,-0.130485566626529,-0.37394032854304665,-0.26922013041061355,0.10592989512064022,-0.16237947748153447,0.18069418923961655,-0.18039425866696718,0.30619567763348843,-0.4257870763194687,-0.4904992915645704,-0.08761527509783174,0.020539661646140628,0.32069080081800505,0.3897199350827001,0.3012360510422085,-0.39910760377492177
-0.01077115978615878,0.2579218390201786,-0.40227117617720326,0.08836069311404637,0.3095899810127867,0.41787643121456564,-0.09516336237786494,-0.4689740561735696,0.08121452647317873,0.009269398408601748,0.3388084195734973,-0.4850721014594064,-0.38160192774683327,0.3166670155789084,0.4369025397751958,-0.4038316010981014,0.15743324284322247,-0.2281463917941537,-0.4291114010518004,0.09368624053601471,0.21179343653460658,0.03387427215179162,0.0933969223841079,0.368362690726464,-0.02829205921305905,0.24908360221846193,0.06768818971127655,-0.06056653222095526,-0.33184165592856785,-0.37768085108961946,-0.3325526843930374,0.33040647713020743,0.08601120979805066,0.09947696682041374,0.14221234276993777,0.1932373483168135,-0.22121601725053786,0.4873374905378267,0.10482723014653994,-0.04836199784109463,0.22122303383481834,-0.30024607423704397,-0.4752846313525385,0.3283511241098638,0.3418857696661194,-0.1953221572075608,0.18779760538032164,-0.24245409189837708,-0.42740183133976617,-0.18378367399973033,0.36310641880291816,0.048837192612158686,0.31883133613450054,-0.2924501894938062,-0.11090104030952835,0.45535456806204955,-0.33547508336392934,-0.2706338669036673,-0.38334724767289463,-0.43949362120567526,-0.1498117584967109,0.46540316984309027,0.36286759975499827,-0.041104622437201754
-0.15817791719836088,-0.4915980575567102,-0.07108331125745704,0.01892110543275305,-0.32554532719102935,-0.2563348085416177,0.3173844161524365,0.17009575230539575,0.1670263780593063,0.11925059678929417,0.37246320670119637,0.012039510771650552,0.00915890350433013,0.2650457982742441,-0.4735230789396554,-0.33296990200549825,-0.4387140031618597,-0.18985771839034637,-0.13316470088118904,0.35194201807116254,-0.24078726989253763,0.11861012299480389,-0.48842485900429305,-0.12153860070814315,-0.28962199287005796,0.1868577747078881,0.02871243168074289,-0.4505821503468706,0.37068473821072123,0.044320851352215196,-0.3985502393443837,0.25581986399172796,-0.1631136739920423,0.06581999108466319,-0.013470958691775337,0.33348382722282965,0.3757611540498963,-0.33112350005243135,-0.4169087647073477,0.32893297720185155,-0.0011680901521668452,-0.30698933350247765,0.3818108145528524,-0.30041926065479374,-0.16491339619500256,0.37705944891882104,-0.053804335442280526,-0.10052088163817341,-0.2971107879640119,0.4496226543326036,0.49922038195618446,-0.45995404010636454,0.09856787072427942,-0.48907441831616427,-0.3003173525446641,0.22321195980683528,0.49682680144758284,-0.4495447105493139,-0.19145690169718904,-0.012403101898917523,0.2149527597776394,0.26796656649930706,0.2994110140946745,-0.3772944732929089
0.01780083613367789,-0.38335665729053164,-0.3248468152363071,0.44333891241966694,-0.2214832430339806,-0.30700690616248494,-0.2087310560553945,0.3924094968905717,-0.27294895368299865,0.037902321916959414,-0.14688989177667067,-0.43379793639006,0.23679930844195152,0.31199440165050063,-0.4566252045131406,-0.16668144178887895,-0.2593378898498313,-0.3707666866810837,0.34652863761714126,0.4210620838781176,0.04510046939603074,-0.4385961992380192,-0.34274800673255135,-0.17403925567587802,-0.13386265637067268,0.26331708150138944,0.3366570257752468,0.3253058645992102,0.3603334016447577,0.09549433719156974,-0.3860197825757879,0.23086534334852604,-0.10640034759715217,0.25910528784576115,0.18177990321152837,-0.2815567389044709,0.20190626415512813,0.0028567521380524763,-0.3790376386041928,-0.4901038818015269,0.15835371038799817,-0.3931891149343872,0.3129949135766341,-0.43933445119268,0.1578154734605064,-0.36651941615460415,0.48641265136488376,-0.3151676002029179,-0.49291950603617335,0.4752245400916899,-0.2530652120490862,0.08571944645872309,0.4214379288821658,0.3783489302165568,0.07760505731106038,-0.04360296462830293,0.45939134944201976,0.3491924404395709,0.07720156879033968,0.01519967546462997,-0.14366393193773175,-0.03403692065460462,-0.467923904754186,0.1315567091254316
-0.07607789550725275,0.12224476487480329,0.1726024112070922,0.47769402059619037,-0.36978550156102774,0.3249315343913304,0.13141229405599286,0.23780535801211622,-0.4917290480768909,0.33663251941866823,-0.23729162650988045,-0.06171041566958202,-0.25159111281465324,-0.40341355553987135,0.16814527086361553,-0.2673432402160686,0.2769044301365057,0.1518246259781647,0.3182253706353835,0.3851088615530678,-0.15144045075934404,0.028260770965488957,0.30942741446636035,0.015250722186290977,-0.31849976946529923,-0.2746171321601687,-0.24094808834649067,0.35271382371555726,0.4256551833477128,0.10576268593117721,0.15356005013620488,-0.3076093689573972,-0.4252652101802012,-0.3185617955487975,0.13674344431457275,-0.46442929141429684,-0.03912182736169634,-0.49128136923130666,-0.44538209864189016,-0.3178510404275037,-0.15618775396430296,0.009129429938797617,0.07744849453561409,-0.4151945905365025,0.11564055672643736,-0.36068452701935755,-0.2920118518136497,0.3628049049818911,-0.31895283042404465,-0.15545519099359179,0.2382952453281243,0.20451144208410355,0.1477377087100119,-0.3530327663072538,-0.21700284011522442,0.3956613335272583,0.31281735040844294,-0.3426483109791988,0.2961937900614896,0.40483163059914096,0.065879622737821,0.2786984703404356,0.3121501746644034,-0.0974917340080681
-0.3169275307175366,-0.42968225755248324,-0.13644520548938083,-0.43302931726585575,-0.04015699985444404,0.13257456227791242,0.27177858714562775,0.2681857993678124,0.09720672462005486,0.13607641106288715,0.04129661551737074,0.3394301193018584,0.450812276429875,0.22462200500286278,0.39961016545985373,-0.4578152424459417,-0.48260528034651895,-0.10375299332838178,0.17166665413960192,0.08111037434130464,0.3674674406030529,0.44904860805210123,0.04465292233259088,0.42776755612705253,0.3984410445664269,0.24108211078731445,-0.27724664182273984,-0.1964735163824975,-0.2874751592927962,-0.3502137292410311,0.11626933683467533,0.06511377569526144,0.1969792552743942,-0.32505977145631787,0.4017329401810341,0.0453228142789206,0.2757606784700233,-0.35898253454779394,-0.09703809516366485,0.048472607298042925,0.07276622186078052,0.4701094459603119,-0.39269528253595126,-0.48833870235287524,0.1056706181753756,-0.05643295941708282,0.4448490570973833,-0.41180465459441984,-0.24225847643905246,0.25400903250743123,0.3874369109456599,-0.33036738393379717,-0.3929681837991663,-0.2689601996769012,0.03504082538887898,-0.2659761387696379,0.02566482011492588,-0.06421276161643341,-0.3314703618322827,0.21876088935824156,-0.0901787958993478,-0.03174789647187476,0.055660958660608606,-0.05257954613891408
-0.4801929257717882,0.4761828398221093,-0.3575491359725358,0.2758720478861928,0.32288906482182866,-0.14571264881906687,-0.23357592091596496,0.376377254201275,0.49328510183528307,-0.376805953158441,-0.4916558475194759,0.397357994642741,0.34174389058805255,0.032991624685466125,-0.177903062048323,-0.045125996016490255,0.296233053689931,-0.36544198722832,-0.45421503994344503,-0.0414841918002275,-0.23765064018669102,-0.053363279231527505,-0.04191804050557224,-0.03406054504870465,0.1398994031548032,0.167709078950672,-0.48034200583600534,-0.1600265599135433,0.4724878272844888,0.18420101547809364,-0.36134859680260933,-0.3954858816673448,-0.0855515127002967,0.15988426360296282,0.49185422341891294,0.1294877783532663,-0.19888382344454703,-0.3310229907888095,-0.2346937194162485,0.40345417238001435,-0.012415046576603805,-0.48894034325561503,-0.32365248576908023,0.4838377693592747,-0.2773043521574253,0.13768283074613796,-0.10772002935769037,0.49267319542945975,-0.3863096995681104,0.21365563418420763,0.4225278356683104,-0.2247368086710278,-0.07753285652842973,-0.40285484953916395,-0.31492890595222306,0.07317035345973932,0.018100880327681534,0.1765114090761689,-0.36402735526861035,-0.34482001412884333,-0.1653706429830616,0.4264506389975784,0.4038894269167862,-0.19091591364281063
0.4845426436441683,0.4038300341478689,-0.01709049265696222,-0.3181403730149103,0.041137401266553186,0.19260915959841063,-0.34624217257194323,0.12725604447874062,0.3692517321879285,-0.35766921232345944,0.4709308547763763,-0.248710296931076,-0.22971079346244727,-0.02575580986484688,-0.2567561928912793,-0.49778342759133476,-0.22457089169163763,-0.4730152012654651,-0.27371686034543297,-0.24116780689971884,0.2616731798097832,0.3633882118684185,0.1820469748610849,-0.1826966631611328,-0.025186830444814068,-0.08131613004082633,-0.3886131019744152,0.12460476747928406,-0.4669956355201991,-0.38987370528740517,0.06882481536307594,0.06113431442581785,-0.3928297701724012,0.36726342787373034,0.49929512571510637,-0.18113438630529416,-0.3452266765968999,-0.28957965634278005,-0.04846420583709338,-0.07891885916652103,0.05989780675615086,-0.20472820881043013,-0.0939885408589563,-0.2198636442049703,-0.37378570431554026,0.43378139097885293,-0.19711885307781346,-0.4561433098074716,-0.06673239803255182,-0.36624392767727554,0.37975087756279435,-0.19235544171759644,0.20016749934301126,0.14505723381650504,0.047410906547406206,-0.37884556822425014,-0.27821694071321607,-0.33439382949582946,0.2070464574299038,-0.3775464686926205,0.08122226157282586,0.029153059948772708,0.09425167999893969,0.2591254374753337
0.07350597231346456,-0.09020345964944149,-0.35588052675867476,-0.09697422133617767,-0.025050935579953193,0.42437819341401484,0.3474432490055651,-0.4349912353488576,0.07544900457162829,0.3052019988210881,0.1989343863441303,-0.0335986113797867,-0.04262324727262523,-0.09808938093394476,-0.30891095884559255,0.041031778576333,-0.38419727696301287,-0.4324697921669436,-0.3086628344881641,0.39924829215707647,-0.26962458285019947,-0.23881974291932756,0.3609668150828066,-0.037887003988906265,-0.1801474786736758,0.37814069393935645,-0.4029174455920781,0.48916715289892965,0.0033738862273161585,-0.1709177371444729,0.33985887926065306,-0.46925525319262185,0.20102011119063012,0.14688602166571008,0.20663038348156515,0.21641775533390128,0.2896619177375277,0.3998553682583642,0.06890762577248166,0.008889408553433342,-0.21368717668284065,0.3147421129116519,0.23219555371077527,0.39496550052192314,0.44612284747237474,-0.41899048207280715,0.16377767904837504,0.3198724402207287,0.4745171293497631,-0.3339853211464292,-0.4933491917296076,0.01369205373976945,-0.16218410556306323,0.19500338784186322,0.028750020325533088,-0.18767428476720782,0.04882972526775198,0.18200647723023144,-0.41682674266250186,0.09680837048069035,0.32729563900609293,0.35827609610663547,0.0616348784238262,-0.2536332582838988
0.46534311956043506,0.16818963953675214,0.2653812774295832,0.3104907310616648,0.19528023558449015,-0.02532871417949384,0.2513698608388053,-0.2840526452213771,-0.0013774179394251962,0.18244775695840254,0.11293546883991712,-0.08436669576185135,0.028984703369897225,0.46600131456088334,0.01599014853871905,-0.26115699660086866,-0.2856369851090186,-0.22278988581280684,-0.4853499764508335,-0.16264079262625464,-0.17756854541486528,-0.17383317447911628,0.19292885237044133,-0.4939832766512331,-0.3818639986598231,-0.10569533175122708,-0.3324119699338507,-0.3923445594927038,0.31668211092086607,0.4720992552917913,0.1815937695473403,-0.07196327278947612,-0.24689276551217437,-0.014171188005325963,0.4296223809614882,-0.22206679206437746,-0.18437175950239026,0.35328694798671034,-0.3754077953637614,-0.00015415647074307204,-0.08535518198523445,0.2907034534917695,-0.4849305283208054,0.15536813747853417,-0.4179320809980538,-0.3868832839126155,0.28334101186289495,0.08282841070686864,-0.3339836713084875,0.3443302539383668,-0.11755464441029106,0.05008552481889983,0.3436260725574689,-0.27572432894991916,0.4239352871309664,0.13917629403955134,0.4752607871663108,0.25936455408081627,0.19235472972148782,-0.19902443266428282,-0.19291674424564315,0.14371442033150905,-0.10073475614224314,0.02652332676878355
-0.49914601258893776,-0.3151012583706068,-0.337473930249677,-0.45684410862477687,-0.4636210664006048,-0.26194305939690354,0.4232147629015216,-0.13892393309572892,-0.34738209044904544,0.014804180019909574,0.42271438935897987,0.031728001093365266,-0.18890264615831087,-0.46243928510809285,0.4239488043468207,-0.49498071474720756,0.1109636563858779,0.08475961935928078,0.44163911181578375,0.47235185698249926,0.08965389970208237,-0.3684917552715595,0.08441065465305497,-0.4711684365622552,0.06189352486370758,-0.20955391307806315,-0.19732757923068833,0.05626368641679347,-0.3390677817347775,0.3236166373005215,-0.3072374122250999,0.27093039768325644,-0.10856179036598734,-0.01145385508958896,0.15451415006747193,0.397169177372553,0.4505906463370615,0.24018512048767182,0.04644947710747338,0.42795938808841605,0.4211154910368451,-0.4786307113145621,-0.10253238473205473,-0.17117810746244067,-0.19843871830889898,-0.10779271396239881,-0.1719210598021378,0.43770007227440366,0.33541574973399557,0.18733544446869543,0.19001191094983927,0.22232363639507613,0.2020753085157253,-0.07308661312474246,0.4368694270667012,0.36934574268262166,0.10048808697633826,-0.36630549368742177,-0.018737633488484506,0.2459328466774583,0.4353845198337848,-0.1330489235152718,-0.29985615136095145,-0.17099872774956687
-0.17795840775499044,-0.3482160083242767,-0.3597102085406474,0.3225512089312781,-0.11695343517556483,-0.4732203730257323,-0.4455713610842691,0.3707785358982061,-0.46168985774819266,-0.4863202762726323,-0.44876363405434583,0.0682846110166444,0.2340406294604953,-0.24441123788450436,0.22727028174664377,-0.33031376117389355,0.46236714672407464,-0.135027651505092,0.2208479366827979,-0.026403226203472907,-0.3663952736493178,-0.029561048620176056,-0.43114491083246886,0.46452482275875506,0.05167671784370986,0.2851684073848503,-0.20331890960378524,0.3168961400244833,-0.24107724602384367,0.3005166304300151,0.49257486825463126,0.05416441455211696,0.3212254400463893,-0.43153365698248786,-0.4932196997074502,-0.3502227099846223,-0.24808250542175142,0.005527731266584124,0.05465350744996844,0.30863612275972785,0.13290680555296452,0.3192333750516332,0.18401349414326884,0.1883955847883576,-0.12432297907039663,-0.13141518394994323,-0.36469488677787354,-0.15510067513915743,-0.09357577543406548,-0.1884238723145909,0.28356569995338365,0.07041217133887678,0.14610313980193024,0.22654707484252146,-0.3046034541002491,0.35160264086518556,-0.4170710974918078,-0.32423503129940245,-0.22912550891243177,0.09787815743958495,0.2300985365780529,-0.26246750110875233,0.1118557819220497,-0.2622064881782078
-0.47889514452726356,-0.0029280486064627853,0.2470591709702551,0.1655742864429831,-0.2511915381770542,0.077492991731266,0.4177687442478578,-0.04316058454250943,0.31031884104493956,0.41221181392307016,0.34068996824356257,-0.18562864870095097,0.2864254572365551,-0.11954049562082647,0.08884780182915175,-0.3169080982063469,0.14986329416272381,0.4517817655353722,-0.08952808454145122,0.4473466262907473,-0.4830490695233685,-0.07783730308424558,0.4080612747501867,-0.40532163479613215,0.3730697971177612,-0.34482234057263583,-0.4331516124928145,-0.4238474741223489,-0.2653467598209841,0.4567753500103836,-0.4214624138183251,-0.1046256933382832,-0.2926224068704165,-0.05378001767852342,0.16729072931562117,0.3786050695360662,0.12152564507980157,-0.03026917322085665,-0.4039091369621033,0.3289312328346685,-0.10619261656244872,-0.17327371550410692,0.2600933302939372,0.23389132587886008,0.3858571065989589,0.38102519460070183,-0.43482281637136955,0.20246939812901865,0.0869171668714458,-0.41221741070608486,0.44801486327686113,0.2783167710426807,0.32706058343269895,0.16450915563130242,-0.27915741865483923,0.09894215855698196,0.0890106766433505,0.15238080576638724,0.2925044893252219,-0.40636919760441836,0.010644604224080534,0.3416162183702067,-0.2778138247215254,0.35354349103455596
0.3336742277413952,-0.05468433841815418,-0.3930062418305344,-0.15979452508492142,0.21316877506355236,0.21024273229308554,0.06156625671385152,-0.31986753261641954,0.3556909024974755,0.08154068262388026,0.053539242853196,0.1902246459807384,0.16206936662181715,-0.32583005112867336,-0.29117874139509103,0.4920446025170594,-0.40999952420126623,-0.13562101062183313,-0.010764640993794705,-0.35312934911489924,-0.4912395132664775,-0.19977918486100582,0.06831372322901796,0.042868437498280954,-0.27462259902368424,-0.43165142924136085,-0.2104056071072843,0.46914483931341433,0.17722633745392147,-0.4975399393576849,-0.18171337138941202,0.05219116506734456,-0.3954598907825816,0.4065498392593814,0.40021709813746487,-0.059458554982886935,0.2740314364312363,0.22497170871355188,0.4893006230654664,0.37667443457836025,0.026216332580063617,0.26788239589328056,0.42262586854520523,-0.2544800991911814,-0.38903008722189353,0.030617935364422366,0.4368727919351648,-0.08515927222797615,-0.05644045283852167,0.3004598868081625,-0.49636967340315213,-0.35373438515408634,-0.1476191406359985,-0.42468447560662614,0.3447830043010335,0.03345341260240109,0.3770019383528279,0.0641253206711846,-0.3851719260612372,0.14482020430491316,-0.07935166059963017,0.09242141740043719,0.002906129929658996,0.3532308418551604
-0.23674594598670767,-0.49865192221414856,0.08568453676332,0.2555195273624359,-0.22604714926613828,0.26827981358779585,-0.28198683391417695,-0.1349712329148181,-0.12492163368729953,0.11256092442784504,0.12065431830503714,-0.2591219091597581,-0.1224050534062111,-0.17720617757980067,-0.06810147527982552,0.1947594656118934,-0.36852422117652567,0.37475366512069186,0.025585292151935946,0.376766450645759,0.49882973404546727,-0.3279789862353257,-0.300189694296657,-0.47077541517595545,-0.4382331650416521,-0.13323631446493617,0.0635395066642852,-0.2900938842399483,0.11014363477478906,-0.1555195812394468,-0.04397390482200958,0.43379491517962654,-0.23502373403637844,-0.43060497330995506,0.4822658467955263,-0.390378165007745,0.44493339860110237,-0.31864673542727096,-0.35911212296183787,0.17527973357368243,0.0824467207223395,0.13860155951166597,0.2711872485332132,0.2398199349361565,-0.04533879391166323,0.10390491346079156,-0.3441415339913878,0.05420811593262853,-0.3677732040489899,-0.07993139167313063,0.013344425481438882,0.04589467427967797,-0.43316387475149887,0.12613967928390002,0.35440110780969314,-0.408766959751382,0.3015377720825084,0.05645995193927544,0.193752692404088,0.4071891651987979,-0.29525969307648936,-0.49189294967422864,0.2548851323103929,-0.4694020524478527
-0.3434651707501454,0.1868594031254106,0.47590182487662036,-0.19180008009625604,-0.15947202437532693,-0.1777233102720805,0.24982606701079102,0.45012251425074534,0.23386578808252967,0.3503055585782535,-0.20568027007658046,-0.13977182546619876,-0.09916623476853886,-0.040009629232813426,0.07456337873570773,-0.042138078502443665,-0.28909478047354836,-0.4906686092683434,-0.4223206801909584,-0.3099249735520803,0.33113599327911436,0.41013142089831245,0.3669587899311254,0.13883658667972154,-0.2850060811196482,0.3910328065469082,-0.19191593709025345,-0.11152655333817313,-0.012399427831358945,-0.26630128816063575,-0.029460573349828156,0.07433967039656808,0.3837164272012731,0.2405893009810659,0.08328510568630187,0.2678018029629261,0.1280030885841712,0.34765854610486824,-0.2863198596920445,0.3099501062230906,0.1702425413160783,0.06322191123069354,0.3120288861971483,-0.2834694333297524,-0.16818005063951952,-0.005827066724108099,0.1903992750171568,-0.15845259868467815,0.4818965732035677,-0.2641092290934684,0.1962839456723463,-0.304591083808146,0.4304277305167298,0.06481010586247316,-0.3005380457269671,-0.2535965916484578,0.3199006131942852,-0.16293476180310118,-0.40679399897660784,-0.05050483092223518,-0.4858073731818271,-0.13864737965103585,-0.03747805791789577,0.00016707624316547598
-0.12023386807191833,0.2199800595268514,-0.0234882526674719,0.1602444642503953,0.37670526508088464,0.3067615757727816,0.32985883291338514,-0.13675332657841655,0.2956512504237011,-0.23227078641404902,0.019832485131841326,-0.23208591795157918,-0.40189746529883585,0.1504282232608778,-0.192983362680759,0.22082098560445984,-0.2993664684702486,0.46653666159442475,-0.09342312654174079,-0.24829019873789054,0.037414766167018,-0.22486948954168218,0.1439119398798383,-0.18109367866120007,0.041127346708032975,-0.1631183026652403,0.4479011897686409,-0.20906214961272762,0.25445254508147597,0.2641849712301907,0.2957574794049177,-0.1911100790328859,-0.39930003085141075,-0.18813819004601717,0.3367644347421659,0.11183988983362902,-0.4823388140566362,-0.4698451892332384,-0.03515786376556285,-0.32486500256921397,-0.09396806200685354,-0.1669627277492372,-0.10024233423184714,0.16269851693077875,-0.45502237926936817,0.4315478722246121,-0.35169912634962197,-0.3305276100665925,-0.4699513991223422,-0.12761498458106768,-0.2511383624519866,-0.4523440347762518,0.454775746890705,-0.2891878591800052,0.4627523100761475,-0.39536437853023615,-0.4239318803529869,-0.3423945740062718,-0.38088288245763763,0.039823567746124944,0.35886038600414083,0.03892098252611276,0.10879412834010749,-0.4685337208064896
-0.02802826581896667,-0.28905743583527277,-0.33278588710016843,0.2862407247471813,0.3136637885187118,0.19517674748561198,0.2031597996610961,-0.3295212792370102,0.0016945253599874865,-0.2685581239725268,0.345677863268963,-0.29562250608374485,0.37537284469016496,0.48121342294905955,-0.2260712993918319,0.10957947448342087,-0.31141917631561833,0.2784287998352334,-0.23911075049038544,-0.1179324703374563,0.01532333368217731,0.24810151418116944,-0.14588582592359084,0.3898878283285945,-0.1508905001221646,0.2321288132724021,0.035771770186616036,0.36005575994963557,0.4110376932243992,0.4250185684883122,-0.18372538857335474,0.36711095546703365,0.22424314391065536,-0.13170861342535756,-0.3092732172502546,0.3340350565659046,0.26433375932478054,-0.13793985109680323,-0.14419139858530433,-0.1651281466079541,0.16922521575783622,-0.4216170832149764,0.04596143986376067,0.22333387086323175,-0.13486572244896822,0.25837481615989233,-0.27073722322040106,-0.4051453033020465,0.3836767253855601,0.009537643058941558,-0.14875725593825673,-0.4195684138310926,-0.22196826698350175,-0.27327340132243627,0.016142945511333107,0.2238702199998639,0.3568283900883181,-0.22267371542876296,-0.06286877513065414,-0.41846502475369024,-0.34059502270100406,0.34310403971146053,-0.2405589724614094,0.07667595687167528
0.415167264600828,0.47856690780192934,-0.01986564999440016,0.007081458115522521,0.29048664019931414,-0.060106355957736446,0.3452457151586402,0.32652067478118496,-0.07737980157946228,0.4260173961175686,0.21284231390470743,-0.06305958310284632,-0.29785992568259123,0.13078030321317735,0.024753550777562694,0.09073468371794313,0.002866036492803148,-0.05908292651133751,0.4763790345640755,-0.0984999498345423,0.07377582442656894,-0.2641569747422622,0.08907922245053534,-0.0024834547669084217,0.35214844106330934,-0.033143437250118424,0.47720666647758647,-0.012992525246456499,0.42492892403385085,-0.2257263738316141,-0.32453312390695005,0.3261211760463757,0.31894188924643296,0.4692854829920854,0.3081666062624038,-0.11343263025089756,-0.22175953384570757,0.22218131866407642,-0.1956319435013607,-0.05621691865670353,0.16429192790030123,0.024722069280558312,0.15781138774836967,-0.14798566310107042,0.013884284772856303,-0.4207974713858205,0.021730145682455126,-0.2739519131248593,0.2525727337936744,0.3463965411514027,0.07866893875350656,0.21848790381033345,0.36672500514738493,0.3579409773731329,-0.49709986755489366,0.17932423934309005,-0.110512314648606,0.48261780477250826,0.15493301705221318,-0.17636992255056738,-0.03731302243532286,-0.14176175959490322,0.4015917507473341,-0.3516534277478482
0.2505505200245187,0.38672113785833173,0.11799852765072072,-0.2671454086746766,0.3226136969507736,-0.36181381897153975,-0.18750578243634936,0.2806847178287267,-0.3634509830099768,0.03259595322077902,0.23720812226515642,-0.4509462448539893,0.07803163750936815,-0.26293511444839424,0.48363226046023533,0.2729459124491298,0.4451264170674265,0.2511585796024457,0.23443474095986916,-0.4214676171175519,0.19560468741487935,-0.0430210277172835,0.45939617089899076,0.46100091187330006,0.46638535054697905,-0.3711576330806863,0.49707968439770844,-0.20437733861821578,-0.43275169838813676,0.4807379790492067,0.48109610377861933,-0.19394631250479555,0.1231303185332242,0.009464815496217804,0.10146381687441086,0.12716314691452457,-0.038795999036541184,-0.21112444564286825,-0.09656561007563286,0.11438655276521414,0.03390232358775214,0.29798422092477983,0.08193888682031025,-0.1658709480733941,-0.3792671448920235,0.4538463772990957,-0.3987073981662781,-0.3475772002002118,0.49898554431227293,0.3819871046030834,-0.12149633961799383,0.21152839796223133,0.12380349944522773,0.323059367864886,-0.04725811516272749,-0.20642845225819778,0.42732496695934097,0.15699761577742066,-0.23353075922165567,0.19377133003145985,-0.35889350336924825,-0.4831284438181335,0.2134364162168635,-0.3441889620591835
0.051499849442159684,-0.06884556523004803,-0.07407656338721352,-0.43143317798684966,0.1356010686771949,-0.14353088645428924,-0.18825808851432896,0.15625086271029476,-0.1522758103219214,-0.37995181180534504,0.04463005929469599,0.3976204664900994,0.3750400854624063,0.12526711897238485,0.34026805676532357,-0.4874610267521166,-0.4724502349144082,0.3446568845979203,-0.20336288293048876,-0.31473880299122015,0.10223431866720056,-0.230432294183612,0.18225018804997684,0.3000709506683382,-0.4432770693410547,-0.1921077308673913,0.1998381799551836,0.30420638518603815,-0.4775936864212126,0.20966305989290734,-0.02671994386553761,0.017030767405885605,-0.41545219529208366,-0.07387215112050632,0.28262920248444623,0.18957842033802463,0.027922940686309183,-0.46727422017942843,0.01682173112259322,0.14251643076656217,0.0702451931174124,0.22225279767171147,-0.13619579171584723,0.0037553112505727126,-0.22157069142981,0.0551214183471731,-0.08146853772060414,-0.19794215201304394,0.3167295590120971,-0.24606973246953906,0.16622156494586804,-0.2035503879671685,0.22023443911235518,0.028175219208083635,0.05357671927361596,-0.21806785637422832,0.24890424671997513,0.1258524859444483,-0.48815610864579495,-0.17229120045541374,0.15663093359052715,0.007535526299632833,0.13384454913150734,0.13806112978517127
0.14676813206019257,-0.4724007081111896,0.31307266178218307,-0.05108776341708737,0.34263791648793873,-0.34931036357270107,-0.01538396743842585,0.49482398526502025,-0.17216484652467295,0.15412068630294906,0.11501600389136746,0.3799815209954891,0.4057634975322352,-0.3215051232005959,0.021641642098148228,0.0016015123117721908,0.38936080685321284,-0.10221966803177246,0.48747682617394106,0.2684760460483264,-0.4565585050529607,-0.32316955589836904,0.2967963282935304,0.056372585499832706,0.3725511296058778,0.0006970588586745485,0.4406741736180494,0.402070454741861,-0.4791181115336335,-0.310887068421993,0.485885497176035,-0.4372903331822205,-0.4115917514597959,0.22574307849898145,0.35698717919038014,-0.24916998331862034,0.24204875656499003,0.4696192256964833,-0.04058006850098261,0.16603992258479816,0.26931423496888685,0.1713975796808478,0.4686144585575044,-0.4338862471905939,0.4131592153167162,0.17359519827812686,-0.12383135390646355,0.07040936992057101,-0.3957891561536999,0.010242379042432859,-0.06165200730862658,-0.24114939837770044,0.020058700125691775,0.3653685030831809,0.09461963483813207,-0.030062312041438333,-0.26919703640472004,-0.24329992371764964,0.07636110697703491,-0.15805914237073582,-0.28998453719075046,0.08254557781971317,0.47394209679865373,-0.36127777810268
0.16823518912691404,0.052306337073588005,0.29157327245528497,-0.3199795809667463,-0.17849230239097602,-0.22918837458323144,0.25955275574678216,0.41974158115672955,0.4383604004692102,-0.1785630964108571,0.4991618110794396,-0.12795608473380843,-0.29178401445587354,0.2306825754841243,0.14321337018311642,-0.3010440686722491,-0.37547158723486196,-0.12973519630252162,0.2978596108955609,0.010639509423933657,0.25076493888663354,0.22703489555373546,0.04265096669208768,-0.27696025454297674,-0.36887655633915056,-0.11295050876818158,-0.4799729469139003,-0.014651319717360334,-0.10674188128055162,-0.3825209261302468,-0.04397554022445138,-0.3132313428508264,0.19745548288219394,0.3298922366601844,-0.10212143631750786,-0.13914712175687177,0.3820219258228419,-0.3038517729397173,-0.25109832768845297,0.3333992184295316,0.2506896232956506,0.01860641153464393,-0.1795097988469106,-0.3013782034634511,0.36620669200374123,-0.27742428042805956,-0.2382782975855648,0.00012038811115566705,0.11348670609923395,-0.122594824350716,-0.28258755513587386,0.33975065911177116,0.28468596692415227,-0.036697412625279924,-0.11204271698931356,0.44120029357317847,-0.4903446296184997,0.06853352699826165,-0.45110302462759566,0.43445820637720556,-0.2492154276693312,-0.2257959245358575,0.02648346243728117,0.320881326599457
0.3654124438135943,0.312393153930266,0.17458843238399757,-0.12167625111605795,-0.1671959881983679,-0.2176395080600118,-0.18306599449509103,0.42838018570485537,-0.37863686861406864,0.4644603924660293,0.25994988612828307,-0.26784147264801034,-0.09345530559935389,-0.1559708298444612,-0.14316694654671797,0.40854772408890894,-0.37467221118261673,0.019906664974944088,0.3718619741834057,-0.4841470569298356,0.40006662900562706,0.11627380066377757,-0.0979173097749787,-0.2658471044925261,-0.05806504635050197,-0.043321729890686334,-0.14880249213837204,-0.18651160117541982,-0.3527487483121216,-0.18555653406565847,0.08261464609886271,-0.023514452168491906,0.49212294909736276,-0.0003911254463676017,-0.16679064727704535,-0.4461864619265247,0.04798728718794287,0.3833979535304932,-0.33268362369047644,-0.1688737858407543,-0.43952882985562497,-0.21096774084072922,0.2183875277258398,0.32022557445812294,0.203352701246437,-0.3442012443413033,0.03465559917253236,0.16562620022596153,-0.2882995264550203,-0.35965074871650465,0.3091304175598223,0.23087790735572478,-0.09765789871926323,0.010630519367116786,0.42081469759382994,-0.2508613568501833,-0.08968953629475529,-0.05956446312347635,0.43638879523444396,0.3761257416923185,0.4311629840783603,-0.4965543933196712,0.2811289340169769,0.3069196654515898
-0.11815425363283338,-0.21653566170322508,-0.25996442174537315,0.40693581984701377,-0.48918018256741586,-0.19698048462019324,-0.13943956309903394,-0.25807016471310995,-0.14740971133457947,0.04073576002416002,0.4553817729257894,0.11103436984635628,0.39788627293793777,0.08185711576689836,0.030800194261036862,-0.21386380200919874,0.42202267093678125,0.18557130763566643,-0.3982120747203995,-0.49309799959561695,0.005313048374519291,0.35173673874313793,-0.4258565534492287,-0.01850757026975397,0.07879417695980251,-0.4159292904268621,0.14350307436823062,-0.3924482496885807,0.44700915829604915,-0.20880936538279493,-0.10003676991911453,-0.44297443653595375,0.00790332514229386,0.4114678622742499,-0.06162017190904362,-0.08011163705033791,0.4157631774040699,0.1277197793255187,0.15480638279337733,0.4086809581651729,0.2797888143825292,0.06720058227293224,-0.1217123813096957,0.36160634125657676,0.05524874644132738,-0.19021967225252634,-0.14874762978812106,0.32845334793834635,0.40963534261548673,0.1502525972436427,0.45410307075553713,-0.25440832355730625,0.4016576814007282,0.27422693361259387,-0.1983933829229294,0.030109007624028683,-0.2906791082539964,0.2585431485243809,-0.17185835711278874,0.4267491078594462,0.15951644101157614,-0.24699131341045316,-0.2050793230091591,-0.43860034595178454
-0.3592274700567254,0.3983562094617431,-0.3968689552959376,0.48641841066368785,-0.3565227123240581,-0.38908816868862517,-0.12962697941326862,-0.20569710838873734,-0.46923507515771085,-0.30689303288557246,-0.2728868139781462,0.43811246610158705,-0.026550879947166373,-0.28746289470580544,0.4262436832889187,-0.23098615078767115,0.23281833936125895,0.31504972642988416,-0.3020835923040675,-0.20324343894759356,-0.16291243613833212,-0.34562844636180834,-0.344632117936682,0.2336763915297,0.10986124519717932,0.40827082046692764,-0.2894325287963415,-0.34277997112031094,-0.20042186356169256,0.22805727493393113,-0.2508354828464032,0.026780127792982444,-0.22772009471790872,-0.18311203535791115,0.22083381131330215,0.15689253697958427,-0.29335071695658876,-0.13516604045180886,0.18497606026240443,0.2987235113041119,-0.22012042334308868,0.15980017914427458,-0.28517324839959535,0.20855071428630068,0.04711374759074005,-0.13650584902451646,-0.4433401124288049,0.496783786451809,0.33229946523546217,-0.4408722063251176,-0.3060692315018127,0.344466714581692,-0.44490772110638566,0.49816411593843446,0.22431209018654752,0.48640097630508294,0.24298832739842513,-0.13054534682563756,-0.12344283453349159,-0.26479353279098566,0.40034436010771635,-0.2868470082929577,0.4947247551729552,-0.19729235009164192
0.4439424499608309,0.20033305822887137,0.1658325608194957,-0.3434388445892552,-0.008296706019107591,-0.23064885369066562,-0.4376354338310824,-0.1320156201869322,-0.3699263338325202,-0.1008071036081794,-0.4831230156045049,0.17728738471739336,0.4395448020377871,-0.0531828322229827,-0.3134373560610401,-0.25363290577830416,0.35161093289573253,-0.2862163152481505,-0.1750794363557731,-0.25954965723657497,0.034126506435743775,-0.09530219742809526,-0.0283121511006319,-0.22588421065634312,0.09257587445554127,0.23443283500821932,0.41390420958115914,0.3371946298690488,0.4882767940816827,-0.05023040694660991,0.39837915119639555,-0.433273415050131,0.16507542397131936,0.4121191016920466,0.2646082643254699,0.3467806893618688,0.19766159015598783,0.40009873216045033,0.0050804924709165755,0.06294831892612773,0.4967632275059648,0.3259463886851195,0.21439304841421225,0.1558993825017937,0.48128713154293934,-0.45297529453084584,-0.4531438257327042,-0.20382884037859217,-0.3171079907645974,-0.36980992875518737,-0.1164044656867182,0.18656067535586685,0.38823242806281544,0.2542744124095302,0.2685811434726143,0.03924464738892608,-0.2713547906704968,-0.10828322852416117,0.0639852809552035,0.2572704589726732,-0.14455306327182477,-0.2748300637001312,-0.12029241426861492,0.1803040731140897
