0.0008137451954249864
0.4501503994456262
-0.48778803925392594
-0.4725742996542595
0.1822089034515475
-0.16021804542290885
0.04870550406570806
0.4515122007352822
0.20870319228093293
0.2619722447180991
-0.25631288474253977
0.20818011775062428
0.19030475415769255
0.3157884663975744
-0.2071713421992824
0.045551168986387114
0.1875766607409235
0.11773304995975131
0.1543026206336462
0.35808672283687015
-0.4338259412598917
-0.2881815241594713
-0.3215058431129464
0.41080101156178905
-0.35646204178056773
-0.2746363830634562
0.11813548003236551
-0.19405518131985106
-0.16388654879475317
0.2478100334982435
-0.29249861780204744
0.271593291206096
-0.053761197046265585
-0.4659110246998775
-0.3449143626936313
-0.46886326790268684
-0.46518725527691995
-0.48056952607844466
0.11396225616986033
0.34311005465831146
0.08148456717910457
-0.06791666642200045
0.47785748307493403
-0.3737398166552837
0.010587297152069963
-0.43959897427801
0.34893989323123353
-0.08714325706807119
-0.4011118863248787
-0.48156588803118366
-0.4303062017682503
0.23771388676842387
0.07086731566622262
0.021620862894514925
0.1141300143739814
-0.21100473064510372
0.27165624255857257
-0.398589050815715
0.3838877421263083
-0.04315471348499633
0.22164647454472564
-0.25723931461444094
0.11539874953003537
0.46089315878268944
